Language model created by QuickLM on Thu May  4 15:40:37 EDT 2017
Copyright (c) 1996-2010 Carnegie Mellon University and Alexander I. Rudnicky

The model is in standard ARPA format, designed by Doug Paul while he was at MITRE.

The code that was used to produce this language model is available in Open Source.
Please visit http://www.speech.cs.cmu.edu/tools/ for more information

The (fixed) discount mass is 0.5. The backoffs are computed using the ratio method.
This model based on a corpus of 25 sentences and 51 words

\data\
ngram 1=51
ngram 2=79
ngram 3=65

\1-grams:
-0.9675 </s> -0.3010
-0.9675 <s> -0.2515
-2.3655 A -0.2992
-2.3655 ALL -0.2992
-2.0645 ARM -0.2515
-2.3655 AT -0.2954
-2.3655 BOTTLE -0.2515
-2.3655 BOX -0.2515
-2.3655 CALIBRATE -0.2992
-2.3655 CAR -0.2515
-2.3655 EXPLORE -0.2897
-2.0645 FORGET -0.2494
-2.3655 HOME -0.2992
-2.3655 HOW -0.2954
-2.3655 I -0.2992
-1.8884 ICUB -0.2954
-2.0645 IS -0.2877
-2.3655 LADYBUG -0.2515
-2.3655 LEFT -0.2973
-2.3655 LEGO -0.2515
-2.3655 LET -0.2954
-2.3655 LOOK -0.2992
-1.8884 ME -0.2494
-2.3655 NEW -0.2992
-2.3655 OBJECT -0.2515
-2.3655 OBJECTS -0.2515
-2.3655 OCTOPUS -0.2515
-2.3655 ON -0.2992
-2.3655 POINT -0.2954
-2.3655 POSITION -0.2515
-2.3655 PUSH -0.2897
-2.3655 REACH -0.2897
-2.3655 RETURN -0.2954
-2.3655 RIGHT -0.2973
-2.3655 SHOW -0.2973
-2.3655 SHUTDOWN -0.2515
-2.3655 TABLE -0.2515
-2.3655 TAKE -0.2897
-2.3655 TEACH -0.2973
-1.5873 THE -0.2515
-2.3655 THIS -0.2515
-1.8884 TO -0.2916
-2.3655 TOUCH -0.2897
-2.3655 TOY -0.2515
-2.3655 TURTLE -0.2515
-2.3655 WHAT -0.2973
-2.3655 WHERE -0.2973
-2.3655 WILL -0.2992
-2.0645 WITH -0.2973
-2.0645 YOU -0.2973
-2.0645 YOUR -0.2973

\2-grams:
-1.6990 <s> BOTTLE 0.0000
-1.6990 <s> BOX 0.0000
-1.6990 <s> CALIBRATE 0.0000
-1.6990 <s> CAR 0.0000
-1.6990 <s> EXPLORE 0.0000
-1.3979 <s> FORGET 0.0000
-1.6990 <s> I 0.0000
-1.2218 <s> ICUB 0.0000
-1.6990 <s> LADYBUG 0.0000
-1.6990 <s> LEGO 0.0000
-1.6990 <s> LET 0.0000
-1.6990 <s> OCTOPUS 0.0000
-1.6990 <s> PUSH 0.0000
-1.6990 <s> RETURN 0.0000
-1.6990 <s> TAKE 0.0000
-1.6990 <s> TOUCH 0.0000
-1.6990 <s> TOY 0.0000
-1.6990 <s> TURTLE 0.0000
-1.6990 <s> WHAT 0.0000
-1.6990 <s> WHERE 0.0000
-1.3979 <s> WITH 0.0000
-0.3010 A NEW 0.0000
-0.3010 ALL OBJECTS 0.0000
-0.3010 ARM </s> -0.3010
-0.3010 AT ME -0.1249
-0.3010 BOTTLE </s> -0.3010
-0.3010 BOX </s> -0.3010
-0.3010 CALIBRATE ON 0.0000
-0.3010 CAR </s> -0.3010
-0.3010 EXPLORE THE 0.0000
-0.6021 FORGET </s> -0.3010
-0.6021 FORGET ALL 0.0000
-0.3010 HOME POSITION 0.0000
-0.3010 HOW TO -0.2218
-0.3010 I WILL 0.0000
-0.7782 ICUB LOOK 0.0000
-0.7782 ICUB POINT 0.0000
-0.7782 ICUB SHUTDOWN 0.0000
-0.6021 IS THE 0.0000
-0.6021 IS THIS 0.0000
-0.3010 LADYBUG </s> -0.3010
-0.3010 LEFT ARM 0.0000
-0.3010 LEGO </s> -0.3010
-0.3010 LET ME -0.2218
-0.3010 LOOK AT 0.0000
-0.4771 ME </s> -0.3010
-0.7782 ME SHOW 0.0000
-0.3010 NEW OBJECT 0.0000
-0.3010 OBJECT </s> -0.3010
-0.3010 OBJECTS </s> -0.3010
-0.3010 OCTOPUS </s> -0.3010
-0.3010 ON TABLE 0.0000
-0.3010 POINT TO -0.2218
-0.3010 POSITION </s> -0.3010
-0.3010 PUSH THE 0.0000
-0.3010 REACH THE 0.0000
-0.3010 RETURN TO -0.2218
-0.3010 RIGHT ARM 0.0000
-0.3010 SHOW YOU -0.1761
-0.3010 SHUTDOWN </s> -0.3010
-0.3010 TABLE </s> -0.3010
-0.3010 TAKE THE 0.0000
-0.3010 TEACH YOU -0.1761
-0.3010 THE </s> -0.3010
-0.3010 THIS </s> -0.3010
-0.7782 TO HOME 0.0000
-0.7782 TO ME -0.1249
-0.7782 TO REACH 0.0000
-0.3010 TOUCH THE 0.0000
-0.3010 TOY </s> -0.3010
-0.3010 TURTLE </s> -0.3010
-0.3010 WHAT IS -0.1761
-0.3010 WHERE IS -0.1761
-0.3010 WILL TEACH 0.0000
-0.3010 WITH YOUR 0.0000
-0.6021 YOU A 0.0000
-0.6021 YOU HOW 0.0000
-0.6021 YOUR LEFT 0.0000
-0.6021 YOUR RIGHT 0.0000

\3-grams:
-0.3010 <s> BOTTLE </s>
-0.3010 <s> BOX </s>
-0.3010 <s> CALIBRATE ON
-0.3010 <s> CAR </s>
-0.3010 <s> EXPLORE THE
-0.6021 <s> FORGET </s>
-0.6021 <s> FORGET ALL
-0.3010 <s> I WILL
-0.7782 <s> ICUB LOOK
-0.7782 <s> ICUB POINT
-0.7782 <s> ICUB SHUTDOWN
-0.3010 <s> LADYBUG </s>
-0.3010 <s> LEGO </s>
-0.3010 <s> LET ME
-0.3010 <s> OCTOPUS </s>
-0.3010 <s> PUSH THE
-0.3010 <s> RETURN TO
-0.3010 <s> TAKE THE
-0.3010 <s> TOUCH THE
-0.3010 <s> TOY </s>
-0.3010 <s> TURTLE </s>
-0.3010 <s> WHAT IS
-0.3010 <s> WHERE IS
-0.3010 <s> WITH YOUR
-0.3010 A NEW OBJECT
-0.3010 ALL OBJECTS </s>
-0.3010 AT ME </s>
-0.3010 CALIBRATE ON TABLE
-0.3010 EXPLORE THE </s>
-0.3010 FORGET ALL OBJECTS
-0.3010 HOME POSITION </s>
-0.3010 HOW TO REACH
-0.3010 I WILL TEACH
-0.3010 ICUB LOOK AT
-0.3010 ICUB POINT TO
-0.3010 ICUB SHUTDOWN </s>
-0.3010 IS THE </s>
-0.3010 IS THIS </s>
-0.3010 LEFT ARM </s>
-0.3010 LET ME SHOW
-0.3010 LOOK AT ME
-0.3010 ME SHOW YOU
-0.3010 NEW OBJECT </s>
-0.3010 ON TABLE </s>
-0.3010 POINT TO ME
-0.3010 PUSH THE </s>
-0.3010 REACH THE </s>
-0.3010 RETURN TO HOME
-0.3010 RIGHT ARM </s>
-0.3010 SHOW YOU HOW
-0.3010 TAKE THE </s>
-0.3010 TEACH YOU A
-0.3010 TO HOME POSITION
-0.3010 TO ME </s>
-0.3010 TO REACH THE
-0.3010 TOUCH THE </s>
-0.3010 WHAT IS THIS
-0.3010 WHERE IS THE
-0.3010 WILL TEACH YOU
-0.6021 WITH YOUR LEFT
-0.6021 WITH YOUR RIGHT
-0.3010 YOU A NEW
-0.3010 YOU HOW TO
-0.3010 YOUR LEFT ARM
-0.3010 YOUR RIGHT ARM

\end\
